{
  "schema_version": 1,
  "generated_with": {
    "R": "R version 4.3.0 (2023-04-21)",
    "implementation": "R/update.R + R/post_analysis.R"
  },
  "hyperparameters": {
    "lambda1": 0.80000000000000004,
    "lambda2": 1.5,
    "gamma": 0.69999999999999996,
    "rho": 1.2,
    "m": 3
  },
  "small": {
    "inputs": {
      "I": [
        [1, 0, 0, 0],
        [0, 1, 0, 0],
        [0, 0, 1, 0],
        [0, 0, 0, 1]
      ],
      "SI": [
        [0, 1, 1, 0],
        [1, 0, 1, 0],
        [1, 1, 0, 1],
        [0, 0, 1, 0]
      ],
      "A": [
        [0, 0.29999999999999999, 0.29999999999999999, 0],
        [0.29999999999999999, 0, 0.29999999999999999, 0],
        [0.29999999999999999, 0.29999999999999999, 0, 0.29999999999999999],
        [0, 0, 0.29999999999999999, 0]
      ],
      "LS": [
        [-0.20000000000000001, 0.10000000000000001, 0.10000000000000001, 0],
        [0.10000000000000001, -0.25, 0.10000000000000001, 0.050000000000000003],
        [0.10000000000000001, 0.10000000000000001, -0.29999999999999999, 0.10000000000000001],
        [0, 0.050000000000000003, 0.10000000000000001, -0.14999999999999999]
      ],
      "R": [
        [0.10000000000000001, 0.02, 0, 0],
        [0.02, -0.050000000000000003, 0.01, 0],
        [0, 0.01, 0.029999999999999999, 0.02],
        [0, 0, 0.02, -0.080000000000000002]
      ],
      "phi": [
        [0, 1, 4, 8.0000000000000018],
        [1, 0, 5.0000000000000009, 5.0000000000000009],
        [4, 5.0000000000000009, 0, 4],
        [8.0000000000000018, 5.0000000000000009, 4, 0]
      ]
    },
    "expected": {
      "LA": [
        [0.59999999999999998, -0.29999999999999999, -0.29999999999999999, 0],
        [-0.29999999999999999, 0.59999999999999998, -0.29999999999999999, 0],
        [-0.29999999999999999, -0.29999999999999999, 0.89999999999999991, -0.29999999999999999],
        [0, 0, -0.29999999999999999, 0.29999999999999999]
      ],
      "Q": [
        [2.4546326135390775, -0.31534101551295746, -0.34298271908221745, 0.0043177009459470506],
        [-0.31534101551295746, 2.1875491951912536, -0.3333734873429689, 0.16871248489891894],
        [-0.34298271908221745, -0.3333734873429689, 2.7651853388369272, -0.32570074351626593],
        [0.0043177009459470506, 0.16871248489891894, -0.32570074351626593, 1.8401440400276716]
      ],
      "R": [
        [-0.63755913624689331, -0.1055907813844509, -0.092420737101338912, -0.0051812411351364607],
        [-0.1055907813844509, -0.71905903422950446, -0.093951815188437177, 0.049545018121297302],
        [-0.092420737101338912, -0.093951815188437177, -0.57622240660431279, -0.093159107780480713],
        [-0.0051812411351364607, 0.049545018121297302, -0.093159107780480713, -0.83617284803320591]
      ],
      "A": [
        [0, 0.50012823836386766, 0.23157044457527201, 0],
        [0.50012823836386766, 0, 0.15998048653181576, 0],
        [0.23157044457527201, 0.15998048653181576, 0, 0.28608882570224847],
        [0, 0, 0.28608882570224847, 0]
      ],
      "latent": [
        [0, 1.6036112507904969, 1.4405160961079446, 2.0487173028137584],
        [1.6036112507904969, 0, 1.5503289346397302, 2.3160506859074292],
        [1.4405160961079446, 1.5503289346397302, 0, 1.7165078547071888],
        [2.0487173028137584, 2.3160506859074292, 1.7165078547071888, 0]
      ],
      "graph_change_mse": 0.5
    },
    "admm_one_iteration": {
      "Q": [
        [4.9155040304080968, -0.92341970191703737, -0.93768075461550726, 0.0097707957319420335],
        [-0.92341970191703737, 4.7172437755644214, -0.93803874758225514, 0.20522202003963458],
        [-0.93768075461550726, -0.93803874758225514, 6.6695347232244009, -0.9262613698526867],
        [0.0097707957319420335, 0.20522202003963458, -0.9262613698526867, 3.0398951470400766]
      ],
      "R": [
        [-0.33060483648971656, -0.075896357699554828, -0.058783094461390961, -0.011724954878330441],
        [-0.075896357699554828, -0.34469253067730549, -0.058353502901293597, 0.0057335759524385294],
        [-0.058783094461390961, -0.058353502901293597, -0.25144166786928002, -0.072486356176775679],
        [-0.011724954878330441, 0.0057335759524385294, -0.072486356176775679, -0.51587417644809175]
      ],
      "A": [
        [0, 0.80000000000000004, 0.58452623137673076, 0],
        [0.80000000000000004, 0, 0.50348424462016805, 0],
        [0.58452623137673076, 0.50348424462016805, 0, 0.60654653288720384],
        [0, 0, 0.60654653288720384, 0]
      ]
    }
  },
  "large_optimizer_branch": {
    "n": 1001,
    "active_edges": [
      [1, 2],
      [2, 1],
      [2, 3],
      [3, 2]
    ],
    "expected_weights": [0.25, 0.25, 0.25, 0.25],
    "expected_maxit": 50
  }
}
